svm_type c_svc
kernel_type rbf
gamma 8.0
nr_class 3
total_sv 43
rho 0.5205435068602489 -0.00302340232753175 -0.2804436501623765
label 202 402 502
nr_sv 9 18 16
SV
0.12081037971032155 0.0 101:0.536392199575839 102:0.013591212253121794 103:3.582618589956364E-6 104:0.7857142857142857 105:3.7899910334841536E-4 106:0.23099005229496455 112:0.19879454482515396 114:0.001831471948620327 115:3.8215141787345834E-4 
1.4428221337214857 0.8477598257011348 101:0.5353656200520813 102:0.015093964667150456 103:1.0731401481408914E-5 104:1.0 105:0.0010596493634691905 106:0.23115468970748712 112:0.19894940494902466 114:0.0013863328738508724 115:9.071825905121113E-4 
21.716504682640128 103.28774335171194 101:0.3746811749217736 102:0.04729823428547263 103:0.004640365693858779 104:0.15714285714285714 105:0.06400441532953637 106:0.24178345768578077 112:0.21018754246137517 114:0.08343788709097764 115:0.06773032881324971 
60.515463495535535 53.266000171906065 101:0.390739857735981 102:0.14350803447033134 103:0.025707153535113752 104:0.04285714285714286 105:0.156552090400463 106:0.2664331378692511 112:0.23896951394289453 114:0.16287528674589494 115:0.1626436718581097 
58.19897140316846 36.87571657096589 101:0.240704625516053 102:0.09557436740597886 103:0.02843297905486916 104:0.04285714285714286 105:0.16487306785360606 106:0.23426386803161323 112:0.210367733150756 114:0.21012015158674593 115:0.18266923037717395 
128.0 112.58708530891806 101:0.3490711341324199 102:0.027265758837610326 103:0.00514406865933486 104:0.02857142857142857 105:0.06761513528962683 106:0.20053806130633106 112:0.17220852577548024 114:0.09875831597741232 115:0.0784233271970144 
7.1209748273171245 0.0 101:0.4473245864137392 102:0.03477329146442235 103:0.0024320752323554536 104:0.11428571428571428 105:0.045172495953534474 106:0.22500855786650475 112:0.19399466644115876 114:0.05515834426687592 115:0.050229888627970246 
20.983485557686546 5.614304217842581 101:0.4639195614932722 102:0.024782774501761518 103:0.001458771954235925 104:0.08571428571428572 105:0.034060607225383975 106:0.21907318430303263 112:0.18819582497530268 114:0.04545373532932811 115:0.03914020926647956 
0.0 5.509431223109693 101:0.5041385294093305 102:0.017388479394924838 103:3.095418722354539E-4 104:0.08571428571428572 105:0.013677816460385397 106:0.22662541967938446 112:0.1948407562027083 114:0.02382512854577768 115:0.016000539605989062 
-40.22066156618784 51.560586774568165 101:0.4539980253975119 102:0.04662381777709659 103:0.0033064397775196064 104:0.07142857142857142 105:0.053365503666071415 106:0.2515031631181716 112:0.21878715837770796 114:0.07240392593284606 115:0.06075826558448545 
-128.0 122.58621580723234 101:0.34789097068510144 102:0.05467938435034727 103:0.008242634564514907 104:0.05714285714285714 105:0.08673855977358809 106:0.21264190344342057 112:0.1843681818492217 114:0.12142954880389177 115:0.10278696863840785 
-10.169976701637465 0.0 101:0.31346671727475184 102:0.0296113898290091 103:0.008110085245240971 104:0.04285714285714286 105:0.086003200154593 106:0.20081938404606758 112:0.17342028153159528 114:0.13525857928891205 115:0.10184201139152242 
-0.6489407211347269 4.83212437211813 101:0.05994502365456777 102:0.0417031106755368 103:0.008747572626340702 104:0.11428571428571428 105:0.08948721893304067 106:0.18654885383143016 112:0.16046923999592572 114:0.12329939653688209 115:0.09320486193274556 
-0.0 2.8459545366823247 101:0.5604351376180968 102:0.11112890760176349 103:0.01039777477906979 104:0.11428571428571428 105:0.09795758684572058 106:0.2984815424031953 112:0.2641982486978169 114:0.09202276486577025 115:0.10245472471607577 
-1.8488201097205026 0.0 101:0.5961744068357453 102:0.2178767872064046 103:0.046839316010263164 105:0.21288095818132802 106:0.4051715258678687 112:0.3710740305856527 114:0.22296042147695577 115:0.23552428287901644 
-0.0 1.5653171557366612 101:0.22843264054135892 102:0.13297859531349057 103:0.07441899838690298 105:0.2695031406156194 106:0.2766657049995116 112:0.2616974056394729 114:0.5112561152826935 115:0.33871927813698194 
-0.0 2.343109498549722 101:0.09853437383544 102:0.09797836084997094 103:0.06761396243769018 105:0.2566750487754264 106:0.14797984818410947 112:0.14542822187453205 114:0.4199688753664484 115:0.28920045457253385 
-5.284073853486984 5.33956034900108 101:0.188919100992859 102:0.2187114376258821 103:0.102514470278525 104:0.04285714285714286 105:0.31709434760195643 106:0.37493084538986476 112:0.35656539399064197 114:0.2850251037515881 115:0.3255496990982103 
-18.280223480036383 4.439866304505825 101:0.39107630238262014 102:0.12626531344017244 103:0.02424257006667352 104:0.014285714285714285 105:0.1518986020217195 106:0.2819946843663262 112:0.25281099372173926 114:0.211469150274613 115:0.1771456012020318 
-43.49942804150535 34.02757614768515 101:0.31371571433799716 102:0.06389280852728439 103:0.018596188136564867 104:0.02857142857142857 105:0.13248734143643037 106:0.2510210240316843 112:0.22280706356047947 114:0.1670450167360521 115:0.14941077704189917 
-0.016387742083526113 10.723816342231533 101:0.3868649870538599 102:0.126926889280471 103:0.031783572760181136 104:0.08571428571428572 105:0.17457251767006726 106:0.33385863313070224 112:0.3022927744341935 114:0.26144491061142017 115:0.19521940109724625 
-0.0 47.62165362240523 101:0.4398666186955574 102:0.04782449072075014 103:0.0077636865891167525 104:0.1 105:0.08405264173025868 106:0.2314284530924248 112:0.20155749232786205 114:0.18177651068027112 115:0.10589913472663287 
-0.0 1.2047847056738255 101:0.4240265220689289 102:0.07161047059343918 103:0.007438777126941216 104:0.04285714285714286 105:0.08218324232609381 106:0.2831614333316085 112:0.24924230576309908 114:0.07717935961174448 115:0.08533194922721975 
-5.026340457850262 0.0 101:0.16681894570442432 102:0.03178323279246526 103:0.007992068489502669 104:0.04285714285714286 105:0.08534340405393302 106:0.06652785455664377 112:0.04973156759783166 114:0.08700436400514668 115:0.08264123132358786 
-13.498219592192237 21.38550794056264 101:0.2760132006254748 102:0.16047702757829901 103:0.06032280209909461 104:0.05714285714285714 105:0.24219166829127975 106:0.23408795038376334 112:0.21962278841910934 114:0.36380071499990846 115:0.2681057789956699 
-9.479050443056968 0.0 101:0.0685273786325438 102:0.06076194019725023 103:0.02739155501330296 104:0.02857142857142857 105:0.16174311813910605 106:0.15961484878949275 112:0.1420890283299527 114:0.17297292238229367 115:0.1711378475921274 
-22.126909770887355 0.0 101:0.3925781951825492 102:0.025086461167524554 103:0.0036056965916581914 105:0.05591527603803435 106:0.21278949911583034 112:0.1830490259083354 114:0.09539507766830944 115:0.06714496722519332 
-85.27299569009132 -28.19607243629267 101:0.2657224711619358 102:0.04817859680626906 103:0.0048531675991364 104:0.08571428571428572 105:0.06555253607343747 106:0.22484508855519536 112:0.19458744211536386 114:0.06651854732115939 115:0.06549394376468506 
-128.0 -128.0 101:0.42807498192380944 102:0.048907001634389005 103:0.004873054529115871 104:0.08571428571428572 105:0.0656954698087237 106:0.22903579005271466 112:0.1984685309480162 114:0.09566681768335117 115:0.07459393721819171 
-6.582449262563815 -18.38076762546685 101:0.18320023770538274 102:0.20070525872835931 103:0.10220567108059882 104:0.014285714285714285 105:0.3166095984976568 106:0.25295168067704726 112:0.2482937541789272 114:0.40180677575341633 115:0.359581301191014 
-1.0023948660922846 -1.3025863321920297 101:1.0 102:0.4789875115564932 103:0.07505085828754447 104:0.05714285714285714 105:0.27066391996377476 106:0.7293188348978248 112:0.6728543070474932 114:0.3140251729370551 115:0.28248622915590854 
-0.6230222736601871 -0.8544792299484617 101:0.5224464293578889 102:0.7108643495219302 103:0.695949493833724 105:0.8334804439924429 106:0.7768423273587497 112:0.8062766248476863 114:1.0 115:0.9499792633844291 
-0.3780062467468839 -0.5209449757752708 101:0.6504863437535353 102:0.8844629733622695 103:0.7186864535673254 104:0.04285714285714286 105:0.8470599133742964 106:1.0 112:1.0 114:0.9255256798859088 115:0.9007379168298871 
-0.6563793710658912 -0.8750787791785984 101:0.3333696339052328 102:0.46377441860416396 103:0.329592824009895 104:0.014285714285714285 105:0.5721632402582308 106:0.43126438436178494 112:0.4545619825723083 114:0.6847883736943553 115:0.6418464983089656 
-0.5219578011776717 -0.5666353200106842 101:0.3650494778182995 102:0.6536112699446752 103:0.5717022114786472 105:0.7549987651190805 106:0.5495750896440205 112:0.5977900833492765 114:0.33721676093816677 115:0.8198737090659948 
-0.08024088063319267 -0.06376722130635495 101:0.5950134844279976 102:0.8610847478310273 103:0.6084424272502431 104:0.05714285714285714 105:0.7790249145438399 106:0.980915645381707 112:0.9702216816241219 114:0.8988098099468307 115:0.7977580351207834 
-0.470287165713948 -0.6882490384588593 101:0.3210372581705675 102:0.6186633291367606 103:0.7005202074409833 105:0.8362278793170643 106:0.5374501211875962 112:0.6098178085952821 114:0.44113069140126454 115:0.9353266219793616 
-0.6986429081541007 -0.9973501386767971 101:0.6758435931969063 102:0.7133827541525677 103:0.3950606069217436 104:0.05714285714285714 105:0.6268471436015489 106:0.9033716707865317 112:0.8752224275769699 114:0.5963619307749894 115:0.6422191667960903 
-0.27995721788774064 -0.23203737940877112 101:0.3501918871227204 102:0.5859728593180432 103:0.5315649970855933 105:0.7278509001495254 106:0.5540506921964948 112:0.5946165685049883 114:0.6493733694257359 115:0.8154808226909723 
-0.5458220379034833 -0.6938226604068135 101:0.6986041255655058 102:0.9053397473108052 103:0.6188176747048225 104:0.05714285714285714 105:0.7856775203296106 106:0.9763211415259095 112:0.9674742181478799 114:0.6018348480527869 115:0.771635272349848 
-0.0 -0.1174535108365666 101:0.40526480112414864 102:0.511720030965405 103:0.43840277511640197 105:0.6605812017479034 106:0.4652897597504388 112:0.5043233420966151 114:0.5286208250190766 115:0.7559616579199333 
-0.8120336766200024 -0.9868289089939326 101:0.41255719301509663 102:1.0 103:1.0 104:0.014285714285714285 105:1.0 106:0.8596724800180814 112:0.915647815869256 114:0.9628445101801829 115:1.0 
-92.06385127184483 -128.0 101:0.3424538855689163 102:0.08522130417217418 103:0.01760835723519795 104:0.05714285714285714 105:0.1288013248902289 106:0.24122579369190955 112:0.2135248915895879 114:0.194835736039992 115:0.14737320116157318 
